A!  
QY,=|
X3a:
U/o,31
Y|W5c
 TTr
d/|M
 y'Q
UE9$
dF/=)
$)CE
iSP{
wFD#
__gmon_start__
_init
_fini
__cxa_finalize
_Jv_RegisterClasses
_Z12getEntireResiiPiS_
_Z14getMultipliersiPiS_
_Z3fftPfS_ii
sincosf
_Z10fftInversePfS_ii
_Z5fft2dPfS_ii
malloc
free
_Z12fftInverse2dPfS_ii
_ZNSt8ios_base4InitC1Ev
_ZNSt8ios_base4InitD1Ev
__cxa_atexit
_ZNK2cv9Exception4whatEv
_ZN2cv9ExceptionD2Ev
_ZTVN2cv9ExceptionE
_ZNSsD1Ev
_ZNSt9exceptionD2Ev
cvReleaseHaarClassifierCascade
cvFree_
cvStartWriteStruct
cvWriteInt
cvEndWriteStruct
__sprintf_chk
cvWriteComment
cvWriteReal
__stack_chk_fail
_ZN2cv3PtrI5CvMatE10delete_objEv
_ZN2cv8fastFreeEPv
_Znwm
_ZdlPv
memmove
_ZSt20__throw_length_errorPKc
_ZN2cv9ExceptionD0Ev
_ZNSsC1EPKcRKSaIcE
_ZNSs4_Rep20_S_empty_rep_storageE
_ZNSsC1ERKSs
_ZN2cv6formatEPKcz
_ZNSs6assignERKSs
_ZN2cv5errorERKNS_9ExceptionE
cvAlloc
_Unwind_Resume
memcpy
__gxx_personality_v0
memset
_ZN2cv9ExceptionD1Ev
_ZN2cv9ExceptionC2EiRKSsS2_S2_i
cvGetFileNodeByName
_ZN2cv9ExceptionC1EiRKSsS2_S2_i
cvGetSeqElem
cvStartReadSeq
cvChangeSeqBlock
_ZN2cv3MatD2Ev
_ZN2cv3Mat10deallocateEv
cvSetImagesForHaarClassifierCascade
cvGetMat
cvRunHaarClassifierCascade
sqrt
_ZN2cv36HaarDetectObjects_ScaleImage_InvokerD2Ev
_ZN2cv3MatD1Ev
cvHaarDetectObjects
cvCreateMat
_ZN2cv10fastMallocEm
cvCreateSeq
cvCvtColor
cvResize
cvIntegral
_ZN2cv15groupRectanglesERSt6vectorINS_5Rect_IiEESaIS2_EERS0_IiSaIiEEid
cvSeqPush
_ZN2cv3Mat8copySizeERKS0_
_ZN2cv3PtrI12CvMemStorageE10delete_objEv
cvCanny
cvSetZero
_ZN2cv15groupRectanglesERSt6vectorINS_5Rect_IiEESaIS2_EEid
_ZN2cv36HaarDetectObjects_ScaleImage_InvokerD1Ev
cvLoadHaarClassifierCascade
strlen
fseek
ftell
fclose
fopen
fread
sscanf
cvLoad
haar_type
_ZN6CvTypeC1EPKcPFiPKvEPFvPPvEPFS6_P13CvFileStorageP10CvFileNodeEPFvSB_S1_S3_10CvAttrListEPFS6_S3_E
_ZN6CvTypeD1Ev
_ZTIN2cv9ExceptionE
_ZTVN10__cxxabiv120__si_class_type_infoE
_ZTSN2cv9ExceptionE
_ZTISt9exception
_ZN2cv8RTTIImplINS_13HOGDescriptorEE7releaseEPPv
_ZN2cv8RTTIImplINS_13HOGDescriptorEE4readEP13CvFileStorageP10CvFileNode
_ZTVN2cv13HOGDescriptorE
_ZN2cv13HOGDescriptor4readERNS_8FileNodeE
_ZN2cv8RTTIImplINS_13HOGDescriptorEE10isInstanceEPKv
_ZGVZN2cv8RTTIImplINS_13HOGDescriptorEE10isInstanceEPKvE5dummy
_ZZN2cv8RTTIImplINS_13HOGDescriptorEE10isInstanceEPKvE5dummy
__cxa_guard_acquire
__cxa_guard_release
_ZN2cv13HOGDescriptorD1Ev
_ZNK2cv8HOGCache23normalizeBlockHistogramEPf
sqrtf
_ZN2cv13HOGDescriptor4loadERKSsS2_
_ZN2cv11FileStorageC1ERKSsi
_ZNK2cv11FileStorageixERKSs
_ZN2cv11FileStorageD1Ev
_ZNK2cv11FileStorage4rootEi
_ZN2cv16FileNodeIteratorC1EPK13CvFileStoragePK10CvFileNodem
_ZN2cv13HOGDescriptorD2Ev
_ZN2cv13HOGDescriptorD0Ev
_ZN2cv8RTTIImplINS_13HOGDescriptorEE5cloneEPKv
_ZNSs4_Rep10_M_destroyERKSaIcE
_ZNK2cv13HOGDescriptor4saveERKSsS2_
_ZN2cv11FileStorage20getDefaultObjectNameERKSs
_ZN2cv8RTTIImplINS_13HOGDescriptorEE5writeEP13CvFileStoragePKcPKv10CvAttrList
_ZN2cv11FileStorageC1EP13CvFileStorage
_ZNK2cv13HOGDescriptor15computeGradientERKNS_3MatERS1_S4_NS_5Size_IiEES6_
_ZN2cv3Mat6createEiPKii
_ZNK2cv3Mat9locateROIERNS_5Size_IiEERNS_6Point_IiEE
_ZN2cv17borderInterpolateEiii
_Znam
_ZN2cv11cartToPolarERKNS_3MatES2_RS0_S3_b
_ZdaPv
_ZN2cv8HOGCacheD2Ev
_ZTVN2cv8HOGCacheE
_ZNK2cv13HOGDescriptor16detectMultiScaleERKNS_3MatERSt6vectorINS_5Rect_IiEESaIS6_EEdNS_5Size_IiEESB_di
_ZN2cv6resizeERKNS_3MatERS0_NS_5Size_IiEEddi
_ZN2cv8HOGCacheD0Ev
_ZNK2cv13HOGDescriptor17getDescriptorSizeEv
_ZNK2cv13HOGDescriptor11getWinSigmaEv
_ZNK2cv13HOGDescriptor5writeERNS_11FileStorageERKSs
_ZN2cvlsERNS_11FileStorageERKSs
_ZN2cv18WriteStructContextC1ERNS_11FileStorageERKSsiS4_
_ZN2cv11writeScalarERNS_11FileStorageEi
_ZN2cv18WriteStructContextD1Ev
_ZN2cv5writeERNS_11FileStorageERKSsi
_ZN2cv5writeERNS_11FileStorageERKSsd
_ZN2cv11FileStorage8writeRawERKSsPKhm
_ZNK2cv13HOGDescriptor17checkDetectorSizeEv
_ZN2cv8HOGCacheC2Ev
_ZN2cv8HOGCache8getBlockENS_6Point_IiEEPf
_ZN2cv3MatC2ERKS0_RKNS_5RangeES5_
_ZN2cv3MataSERKNS_7Scalar_IdEE
_ZNK2cv8HOGCache14windowsInImageENS_5Size_IiEES2_
_ZNK2cv8HOGCache9getWindowENS_5Size_IiEES2_i
_ZN2cv13HOGDescriptor24getDefaultPeopleDetectorEv
_ZNSt6vectorIfSaIfEEaSERKS1_
_ZSt17__throw_bad_allocv
_ZNK2cv13HOGDescriptor6copyToERS0_
_ZN2cv13HOGDescriptor14setSVMDetectorERKSt6vectorIfSaIfEE
_ZNSt6vectorIN2cv6Point_IiEESaIS2_EE13_M_insert_auxEN9__gnu_cxx17__normal_iteratorIPS2_S4_EERKS2_
_ZNSt6vectorIiSaIiEE14_M_fill_insertEN9__gnu_cxx17__normal_iteratorIPiS1_EEmRKi
_ZNSt6vectorIN2cv8HOGCache9BlockDataESaIS2_EE14_M_fill_insertEN9__gnu_cxx17__normal_iteratorIPS2_S4_EEmRKS2_
_ZNSt6vectorIN2cv8HOGCache7PixDataESaIS2_EE14_M_fill_insertEN9__gnu_cxx17__normal_iteratorIPS2_S4_EEmRKS2_
_ZN2cv8HOGCache4initEPKNS_13HOGDescriptorERKNS_3MatENS_5Size_IiEES8_bS8_
expf
_ZN2cv8HOGCacheC2EPKNS_13HOGDescriptorERKNS_3MatENS_5Size_IiEES8_bS8_
_ZNK2cv13HOGDescriptor6detectERKNS_3MatERSt6vectorINS_6Point_IiEESaIS6_EEdNS_5Size_IiEESB_RKS8_
_ZN2cv8HOGCacheC1EPKNS_13HOGDescriptorERKNS_3MatENS_5Size_IiEES8_bS8_
_ZN2cv8HOGCacheD1Ev
_ZNSt6vectorIfSaIfEE14_M_fill_insertEN9__gnu_cxx17__normal_iteratorIPfS1_EEmRKf
_ZNK2cv8FileNodeixEPKc
_ZN2cv16FileNodeIteratorppEv
_ZN2cv16FileNodeIterator7readRawERKSsPhm
_ZNK2cv13HOGDescriptor7computeERKNS_3MatERSt6vectorIfSaIfEENS_5Size_IiEES9_RKS4_INS_6Point_IiEESaISB_EE
_ZN2cv8hog_typeE
_ZTSN2cv13HOGDescriptorE
_ZTIN2cv13HOGDescriptorE
_ZTVN10__cxxabiv117__class_type_infoE
_ZTSN2cv8HOGCacheE
_ZTIN2cv8HOGCacheE
pthread_cancel
_ZN2cv8HOGCacheC1Ev
_Z17getFeatureMaps_dpPK9_IplImageiPP16CvLSVMFeatureMap
cvCreateImage
_Z21allocFeatureMapObjectPP16CvLSVMFeatureMapiiii
cvFilter2D
cvReleaseImage
_Z37normalizationAndTruncationFeatureMapsP16CvLSVMFeatureMapf
_Z14PCAFeatureMapsP16CvLSVMFeatureMap
_Z17getFeaturePyramidP9_IplImageiiiiiiPP20CvLSVMFeaturePyramid
cvSetImageROI
cvGetSize
cvCopy
cvResetImageROI
cvConvertScale
powf
logf
allocFeaturePyramidObject
_Z13resize_opencvP9_IplImagef
_Z23addBordersToFeatureMapsP16CvLSVMFeatureMapii
_Z11convolutionPK18CvLSVMFilterObjectPK16CvLSVMFeatureMapPf
_Z14fftImagesMultiPfS_iiS_
_Z6rot2PIPfiiS_ii
_Z15addNullableBarsPfiiS_ii
_Z23getFFTImageFilterObjectPK18CvLSVMFilterObjectiiPP14CvLSVMFftImage
_Z13allocFFTImagePP14CvLSVMFftImageiii
_Z21getFFTImageFeatureMapPK16CvLSVMFeatureMapPP14CvLSVMFftImage
_Z13convFFTConv2dPK14CvLSVMFftImageS1_iiPPf
_Z22filterDispositionLevelPK18CvLSVMFilterObjectPK16CvLSVMFeatureMapPPfPPiS8_
_Z38DistanceTransformTwoDimensionalProblemPKfiiS0_PfPiS2_
_Z25filterDispositionLevelFFTPK18CvLSVMFilterObjectPK14CvLSVMFftImagePPfPPiS8_
_Z12freeFFTImagePP14CvLSVMFftImage
_Z17computeBorderSizeiiPiS_
ceilf
_Z17addNullableBorderP16CvLSVMFeatureMapii
_Z26featureMapBorderPartFilterP16CvLSVMFeatureMapii
_Z28maxFunctionalScoreFixedLevelPPK18CvLSVMFilterObjectiPK20CvLSVMFeaturePyramidifiiPfPP7CvPointPiPS9_
_Z20freeFeatureMapObjectPP16CvLSVMFeatureMap
_Z34thresholdFunctionalScoreFixedLevelPPK18CvLSVMFilterObjectiPK20CvLSVMFeaturePyramidifiifPPfPP7CvPointPiPSA_
_Z18maxFunctionalScorePPK18CvLSVMFilterObjectiPK20CvLSVMFeaturePyramidfiiPfPP7CvPointPPiSA_PS9_
_Z24thresholdFunctionalScorePPK18CvLSVMFilterObjectiPK20CvLSVMFeaturePyramidfiifPPfPP7CvPointPPiSB_PSA_
_Z4sortiPKfPi
nonMaximumSuppression
_ZN2cv16FeatureEvaluatorD2Ev
_ZTVN2cv16FeatureEvaluatorE
_ZN2cv16FeatureEvaluator4readERKNS_8FileNodeE
_ZNK2cv16FeatureEvaluator5cloneEv
_ZNK2cv16FeatureEvaluator14getFeatureTypeEv
_ZN2cv16FeatureEvaluator8setImageERKNS_3MatENS_5Size_IiEE
_ZN2cv16FeatureEvaluator9setWindowENS_6Point_IiEE
_ZNK2cv16FeatureEvaluator7calcOrdEi
_ZNK2cv16FeatureEvaluator7calcCatEi
_ZNK2cv13HaarEvaluator14getFeatureTypeEv
_ZNK2cv13HaarEvaluator7calcOrdEi
_ZNK2cv12LBPEvaluator14getFeatureTypeEv
_ZNK2cv12LBPEvaluator7calcCatEi
_ZN2cv16FeatureEvaluatorD0Ev
_ZN2cv16FeatureEvaluatorD1Ev
_ZN2cv12LBPEvaluator9setWindowENS_6Point_IiEE
_ZN2cv13HaarEvaluator9setWindowENS_6Point_IiEE
_ZNK2cv8FileNode4sizeEv
_ZN2cv13HaarEvaluator8setImageERKNS_3MatENS_5Size_IiEE
_ZN2cv8integralERKNS_3MatERS0_S3_S3_i
_ZN2cv8integralERKNS_3MatERS0_S3_i
_ZN2cv12LBPEvaluator8setImageERKNS_3MatENS_5Size_IiEE
_ZN2cv8integralERKNS_3MatERS0_i
_ZN2cv13HaarEvaluator7Feature4readERKNS_8FileNodeE
_ZN2cv13HaarEvaluator4readERKNS_8FileNodeE
_ZN2cv12LBPEvaluator7Feature4readERKNS_8FileNodeE
_ZN2cv17CascadeClassifierC2Ev
_ZNK2cv17CascadeClassifier5emptyEv
_ZN2cv17CascadeClassifier5runAtERNS_3PtrINS_16FeatureEvaluatorEEENS_6Point_IiEE
_ZN2cv17CascadeClassifier8setImageERNS_3PtrINS_16FeatureEvaluatorEEERKNS_3MatE
_ZN2cv3PtrI23CvHaarClassifierCascadeE10delete_objEv
_ZN2cv3PtrI23CvHaarClassifierCascadeE7releaseEv
_ZNSt6vectorIN2cv17CascadeClassifier5StageESaIS2_EE7reserveEm
_ZNSt6vectorIN2cv17CascadeClassifier5DTreeESaIS2_EE7reserveEm
_ZNSt6vectorIN2cv17CascadeClassifier9DTreeNodeESaIS2_EE7reserveEm
_ZNSt6vectorIfSaIfEE7reserveEm
_ZNSt6vectorIiSaIiEE7reserveEm
_ZNSt6vectorIN2cv5Rect_IiEESaIS2_EE13_M_insert_auxEN9__gnu_cxx17__normal_iteratorIPS2_S4_EERKS2_
_ZNSt6vectorIiSaIiEE13_M_insert_auxEN9__gnu_cxx17__normal_iteratorIPiS1_EERKi
_ZN2cv3PtrINS_16FeatureEvaluatorEE7releaseEv
_ZN2cv17CascadeClassifierD2Ev
_ZN2cv3PtrISt6vectorINS_13HaarEvaluator7FeatureESaIS3_EEE7releaseEv
_ZN2cv13HaarEvaluatorD2Ev
_ZTVN2cv13HaarEvaluatorE
_ZN2cv13HaarEvaluatorD0Ev
_ZN2cv13HaarEvaluatorD1Ev
_ZN2cv13HaarEvaluatorC2Ev
_ZNK2cv13HaarEvaluator5cloneEv
_ZN2cv13HaarEvaluatorC1Ev
_ZN2cv3PtrISt6vectorINS_12LBPEvaluator7FeatureESaIS3_EEE7releaseEv
_ZN2cv12LBPEvaluatorD2Ev
_ZTVN2cv12LBPEvaluatorE
_ZN2cv12LBPEvaluatorD0Ev
_ZN2cv12LBPEvaluatorD1Ev
_ZN2cv12LBPEvaluatorC2Ev
_ZN2cv16FeatureEvaluator6createEi
_ZN2cv12LBPEvaluatorC1Ev
_ZNK2cv12LBPEvaluator5cloneEv
_ZNSt6vectorIN2cv17CascadeClassifier5StageESaIS2_EE13_M_insert_auxEN9__gnu_cxx17__normal_iteratorIPS2_S4_EERKS2_
_ZNSt6vectorIN2cv17CascadeClassifier5DTreeESaIS2_EE13_M_insert_auxEN9__gnu_cxx17__normal_iteratorIPS2_S4_EERKS2_
_ZNSt6vectorIN2cv17CascadeClassifier9DTreeNodeESaIS2_EE13_M_insert_auxEN9__gnu_cxx17__normal_iteratorIPS2_S4_EERKS2_
_ZNSt6vectorIfSaIfEE13_M_insert_auxEN9__gnu_cxx17__normal_iteratorIPfS1_EERKf
_ZN2cv17CascadeClassifier4readERKNS_8FileNodeE
_ZNKSs7compareEPKc
_ZN2cv17CascadeClassifier4loadERKSs
_ZNK2cv11FileStorage8isOpenedEv
_ZN2cv11FileStorage7releaseEv
_ZN2cv17CascadeClassifierC2ERKSs
_ZNSt6vectorIN2cv12LBPEvaluator7FeatureESaIS2_EE14_M_fill_insertEN9__gnu_cxx17__normal_iteratorIPS2_S4_EEmRKS2_
_ZN2cv12LBPEvaluator4readERKNS_8FileNodeE
_ZNSt6vectorIN2cv5Rect_IiEESaIS2_EE14_M_fill_insertEN9__gnu_cxx17__normal_iteratorIPS2_S4_EEmRKS2_
_ZNSt6vectorI9CvAvgCompSaIS0_EE14_M_fill_insertEN9__gnu_cxx17__normal_iteratorIPS0_S2_EEmRKS0_
_ZN2cv17CascadeClassifier16detectMultiScaleERKNS_3MatERSt6vectorINS_5Rect_IiEESaIS6_EEdiiNS_5Size_IiEESB_
cvCreateMemStorage
cvCvtSeqToArray
_ZN2cv8cvtColorERKNS_3MatERS0_ii
_ZTSN2cv16FeatureEvaluatorE
_ZTIN2cv16FeatureEvaluatorE
_ZTSN2cv13HaarEvaluatorE
_ZTIN2cv13HaarEvaluatorE
_ZTSN2cv12LBPEvaluatorE
_ZTIN2cv12LBPEvaluatorE
_ZN2cv17CascadeClassifierC1Ev
_ZN2cv17CascadeClassifierD1Ev
_ZN2cv17CascadeClassifierC1ERKSs
_Z7isMODELPc
strcmp
_Z3isPPc
_Z7isSCOREPc
_Z6isCOMPPc
_Z9isRFILTERPc
_Z10isPFILTERsPc
_Z9isPFILTERPc
_Z7isSIZEXPc
_Z7isSIZEYPc
_Z9isWEIGHTSPc
_Z3isVPc
_Z4isVxPc
_Z4isVyPc
_Z3isDPc
_Z4isDxPc
_Z4isDyPc
_Z5isDxxPc
_Z5isDyyPc
_Z3isBPc
_Z6getTegPc
_Z9addFilterPPP18CvLSVMFilterObjectPiS3_
_Z13parserRFilterP8_IO_FILEiP18CvLSVMFilterObjectPf
feof
fgetc
strtol
strtod
_Z7parserVP8_IO_FILEiP18CvLSVMFilterObject
_Z7parserDP8_IO_FILEiP18CvLSVMFilterObject
_Z13parserPFilterP8_IO_FILEiiP18CvLSVMFilterObject
_Z14parserPFilterSP8_IO_FILEiPPP18CvLSVMFilterObjectPiS5_
_Z10parserCompP8_IO_FILEiPiPPP18CvLSVMFilterObjectPfS1_S1_
_Z11parserModelP8_IO_FILEPPP18CvLSVMFilterObjectPiS5_PS5_PPfS5_S7_
_Z10LSVMparserPKcPPP18CvLSVMFilterObjectPiS5_PS5_PPfS5_S7_
loadModel
_Z22GetPointOfIntersectionPKfffiiPf
_Z38DistanceTransformOneDimensionalProblemPKfiffPfPi
_Z19GetNextCycleElementiii
_Z22TransposeCycleElementsPfPii
_Z26TransposeCycleElements_intPiS_i
_Z9TransposePfii
_Z13Transpose_intPiii
cvLoadLatentSvmDetector
cvReleaseLatentSvmDetector
cvLatentSvmDetectObjects
cvConvertImage
getMaxFilterDims
createFeaturePyramidWithBorder
searchObjectThresholdSomeComponents
clippingBoxes
freeFeaturePyramidObject
_Z17allocFilterObjectPP18CvLSVMFilterObjectiiii
_Z16freeFilterObjectPP18CvLSVMFilterObject
_Z13convertPointsiiiP7CvPointPiPS0_iiii
_Z12searchObjectPK20CvLSVMFeaturePyramidPPK18CvLSVMFilterObjectifiiPP7CvPointPPiS9_PfPS8_
_Z21searchObjectThresholdPK20CvLSVMFeaturePyramidPPK18CvLSVMFilterObjectifiifPP7CvPointPPiS9_PPfPS8_
_Z16getOppositePoint7CvPointiifiPS_
_Z13estimateBoxesP7CvPointPiiiiPS0_
_Z19showRootFilterBoxesP9_IplImagePK18CvLSVMFilterObjectP7CvPointPii8CvScalariii
cvRectangle
cvShowImage
_Z19showPartFilterBoxesP9_IplImagePPK18CvLSVMFilterObjectiPP7CvPointPii8CvScalariii
_Z9showBoxesP9_IplImagePK7CvPointS3_i8CvScalariii
libdl.so.2
libpthread.so.0
librt.so.1
libopencv_core.so.2.2
libopencv_imgproc.so.2.2
libopencv_highgui.so.2.2
libm.so.6
liblapack.so.3
libz.so.1
libstdc++.so.6
libgcc_s.so.1
libc.so.6
_edata
__bss_start
_end
libopencv_objdetect.so.2.2
GCC_3.0
GLIBC_2.2.5
GLIBC_2.3.4
GLIBC_2.4
CXXABI_1.3
GLIBCXX_3.4
5rA$
%tA$
%rA$
%jA$
%bA$
%ZA$
%RA$
%JA$
%BA$
%:A$
%2A$
%*A$
%"A$
%z@$
%r@$
%j@$
%b@$
%Z@$
%R@$
%J@$
%B@$
%:@$
%2@$
%*@$
%"@$
%z?$
%r?$
%j?$
%b?$
%Z?$
%R?$
%J?$
%B?$
%:?$
%2?$
%*?$
%"?$
%z>$
%r>$
%j>$
%b>$
%Z>$
%R>$
%J>$
%B>$
%:>$
%2>$
%*>$
%">$
%z=$
%r=$
%j=$
%b=$
%Z=$
%R=$
%J=$
%B=$
%:=$
%2=$
%*=$
%"=$
%z<$
%r<$
%j<$
%b<$
%Z<$
%R<$
%J<$
%B<$
%:<$
%2<$
%*<$
%"<$
%z;$
%r;$
%j;$
%b;$
%Z;$
%R;$
%J;$
%B;$
%:;$
%2;$
%*;$
%";$
%z:$
%r:$
%j:$
%b:$
%Z:$
%R:$
%J:$
%B:$
%::$
%2:$
%*:$
%":$
%z9$
5{9$
=x9$
5Y9$
-z0$
=}0$
=	9$
=j/$
=:/$
5g8$
=Y8$
5;8$
=-8$
=z.$
=J.$
=}7$
5_7$
=86$
ATSubH
[A\]
=f'$
AWAVAUATU
D$\D
l$\D
l$@H
D$pI
*L$h
YL$lE
HcD$\L
*D$PH
YD$TE1
t$xH
YD$8
d$xD9
XL$$
XD$ 
D$ u
D$<H
|$|A
T$xH
D$|H
YD$$
YT$ 
D;|$@
t$0D9d$P
D$pH
D$@9D$h
[]A\A]A^A_
AWAVAUATA
|$`D
T$pf
\$DA
*T$tLc
D$XH
*T$\
T$PA
D$8f
YD$@
YD$4
XL$,
XD$0
D$XH
YD$,
YT$0
YD$P
D;|$D
^D$p
^T$p
t$h9D$\
D$HH
D$xD9d$t
[]A\A]A^A_
AVAUA
[]A\A]A^A_
AVAUA
[]A\A]A^A_
AVAUATUSH
E E1
 E9u
[]A\A]A^A_
AVAUATUSH
L$ L
D$(I
T$ 1
T$$1
D$(1
T$,1
T$01
T$41
T$81
D$<H
root nodf
B D98
[]A\A]A^A_
AVAUATUSH
 []A\A]A^
AWAVAUATI
[]A\A]A^A_
[]A\A]A^A_
AUATUSH
([]A\A]
([]A\A]
([]A\A]
u'E1
AWAVAUATUSH
|$Xt
L$XH
D$XI
L$XA
L$HD
D$PL
L$8H
D$XL
D$pI
L$`M
D$|H
|$hA
T$ H
t$ H
D$0I
	|$(
9|$H| 
;T$P
L$pD
L$DH
|$8H
L$ L
t$ H
D$0I
p0E1
D	D$(
:D9D$H|$
9T$P
D$pD
L$DH
|$8H
L$ H
t$ H
	|$(
9|$H|!
;T$P
L$pH
|$8H
D$ H
t$ H
D$ D
t$ H
T$ H
t$ H
9L$P
D$tH
D$h0D
D$DA9
;t$P
;t$P
D$pH
D$|Hct$|D
T$xC
D$XL
d$(H
l$ M
L$P1
M 	{
L$0H
D$8I
L;\$H
D$0L
L$81
D$DE9
$~	L
D$( D
D$pH
D$ 0E9A
L$X1
[]A\A]A^A_
D$XH
L$XH
|$ I
ATUS
[]A\
|$(H
D$ -
|$0H
|$8H
L$(D
D$ H
T$8H
|$8H
L$(D
D$ H
T$8H
AWAVAUATUSH
T$ H
l$(H
T$ H
t$ H
D$ H
T$(H9T$
8[]A\A]A^A_
|$ H
t$ H
\$8H
l$@L
d$HL
l$PL
t$XL
|$`H
|$ I
AVAUATI
|$hH
L$XH
|$hH
D$ H
T$XH
T$XH
l$@H
T$@H
D$@H
L$@H
l$`H
L$$D
L$ H
t$pH
|$hH
D$xt
L$$D
D$ H
t$xH
|$hH
D$Ht
L$$D
D$ H
D$HH
T$HH
L$0H
D$(H
L$$D
D$ H
D$,H
T$XD
L$$D
D$ H
L$$D
D$ H
L$@H
T$PIc
L$(f
T$HA
@(D9
T$$D
L$ H
|$0H
L$$D
D$ H
|$8H
t$(H
L$$D
D$ H
t$,H
L$$D
D$ H
T$$H
|$hH
D$ H
L$XH
|$hf
D$ H
|$hH
D$ H
T$XH
[]A\A]A^A_
L$@H
t$PH
t$xH
|$hH
L$$D
D$ H
D$@H
t$pH
|$hH
L$$D
D$ H
T$@H
d$`H
t$pH
|$hf
L$$D
D$ H
L$@H
t$pH
|$hH
L$$D
D$ H
L$@H
T$`H
D$P@H
t$pH
|$hH
L$$D
D$ H
t$pH
|$hH
L$$D
D$ H
L$$D
D$ H
L$$D
D$ H
L$$D
D$ H
L$$D
D$ H
L$$D
D$ H
T$X;B
D$X;h
AWAVAUI
D$pH
U H9P 
l$XE
d$pMc
L$PH
\$8H
l$HH
l$xD
t$4H
L$lD
L$hH
l$,E
+D$h
D$$D
T$$D
L$`D
|$ D
|$ E
+D$l
D$(D
l$pMc
l$PMc
D$PN
;|$@
l$xf
D$8@D
\$DI
[]A\A]A^A_
d$0E
d$XG
Icl$
D$p9P
D$XH
D$pH9P 
L$XH
AWAVA
 ATA
D$0H
T$ H
|$@H
|$HH
L$8D
D$0H
T$HH
|$(H
|$HH
HcCDH
[]A\A]A^A_
L$8D
D$0H
T$HH
|$(H
X8A+
X`A+
P8A+
|$xH
D$`H
L$xD
D$pH
|$hH
L$xD
D$pH
|$hH
|$ H
|$`H
AWAVAUATUH
L$`H
t$dH
L$8H
t$PH
D$HH
L$d9L$`H
*D$`
D$0D
t$8A
t$@+
t$0H
L$ D
d$pH
t$d9t$`
[]A\A]A^A_
AWAVAUI
ATUH
D$`E
D$`H
D$`H
t$xH
D$`H
D$pH
t$xH
D$`H
T$X1
D$`H
\$PH
D$PH
YD$P
^D$P
^D$P
@BBH
@BBH
@BBH
|$`H
L$PE1
D$@H
.D$@
nL$HA
D$@f
D9t$l
|$`L
D$`H
\$Ht"
t$xL
D$@E1
YT$H
_L$@
YD$HA
L$Pf
D$HH
D$`H
D$Hf
tfI)
|$pH
t$XH
D$pH
[]A\A]A^A_
L$XH
D$`H
|$`L
D$HH
L$XL
*D$l
^D$P
D$lD)
^D$P
^D$P
^D$P
D$XH
t$xH
D$l9
t$xH
D$XH
AUATUSH
D$XD
[]A\A]A^A_
HcL$xH
D$`L
L$(H
D$`L
9l$x
|$0H
|$xL
L$ H
D$@H
L$pH
D$`H
T$|H
T$pH
D$XH
X Hc
T$hH
T$XH
L$hH
\$HL
<HHc
D$8f.
T$0Ic
L$@L
D$8H
L$0H
t$ H
D$(H
D$(H
x6E1
D$H0
D$T;
T$XH
L$hH
T$XH
T$hH
D$p9D$x
8Hc_xH
t$ H
|$(H
[]A\
$H;D$`H
T$(tAH
HcH(
HcHh
L$hH9L$
H9L$Pu
D$@H
H;=(	#
\$PH
l$XL
d$`L
l$hL
t$pH
\$`H
l$hL
d$pH
D$ H
T$^H
|$PL
T$PH
D$PH
|$PH
AWAVM
AUATUL
|$ H
t$8H
T$@H
D$0%
t$8A
t$4H
t$8D
L$4;J
L$4H
t$4;q
t$4H
|$8H
t$8H
|$ 1
D$4H
L$(|EI
T$(|EI
D9d$4}
D$PI
D$PH
T$PH
t$PH
T$XH
T$XH
L$`H
|$ H
T$hH
L$4E
L$HH
T$@H
D$(H
t$8H
|$ L
l$ H
FPIc
D$HL
d$ H
D$pH
T$@L
t$tL
l$xL
t$XL
t$tL
l$xH
L$`H
D$ 9D$4
L$HH
T$@H
T$PL
\$X1
[]A\A]A^A_
AWAVAUATI
D$PH
L$0L
L$\E
A9T$
L+|$8Mc
D$8K
L$0H
D$@H
T$@H
D$ H
d$`H
D$tH
D$Pf
nT$(L
D$8f
nL$ H
D$xH
*L$p
*D$tH
L$hH
D$PH
T$(L
L$hA
*D$pH
*D$t
|$hH
|$`L
t$ t
t$ H
D$0H
A9T$
E9l$h
H+D$8H
D$ t
H9D$ 
T$ H
|$8H
D$(H
L$8H
L+|$8A
|$hH
D$@L9D$(
T$HH
L$HH
t$\H
[]A\A]A^A_
D$PH
T$HI
t$8H
t$8H
|$8H
T$ H
GT$(H
|$hH
D$t9D$p
MD$p
T$HI
T$HL
ATUSH
|$(H
D$ )
|$0H
|$8H
D$@=
L$(D
D$ H
T$8H
D$8H
D$0H
D$(H
|$hH
D$`)
D$PH
|$pH
|$xH
L$hD
D$`H
T$xH
|$XH
D$PH
D$xH
D$pH
D$hH
D$XH
HcC(H
[]A\H
L$hD
D$`H
T$xH
|$XH
L$(D
D$ H
T$8H
|$PH
AUATUSH
CPH9CX
[]A\A]A^
|$8H
D$ H
|$@H
|$HH
D$P4
L$8D
D$0H
T$HH
|$(H
|$HH
|$xH
D$`H
L$xD
D$pH
|$hH
L$8D
D$0H
T$HH
|$(H
L$xD
D$pH
|$hH
|$`H
|$ H
_XH+_P
AWAVAUATI
E@Lc
|$@H
|$@H
D$XH
D$ H
D$(H
D$0H
D$(Mc
d$8J
|$ O
D$0E
Y@ L
YH H
Y@$N
Y@ H
Y@$N
Y@(N
Y@,N
[]A\A]A^A_
=Y~"
=-~"
|$@H
+F\I
+FXD
l$ L
t$(L
|$0H
4$H)
|$(H
D$ )
|$0H
|$8H
D$@W
L$(D
D$ H
T$8H
D$8H
D$0H
D$(H
D$PH
D$`H
D$pH
=Lx"
L$(D
D$ H
T$8H
=cw"
=3w"
=sv"
AVAUATUSH
[]A\A]A^
[]A\A]A^
AWAVAUATI
[]A\A]A^A_
[]A\A]A^A_
AVAUATUSH
UUUUUUU
([]A\A]A^A_
([]A\A]A^A_
([]A\A]A^A_
AWAVAUATI
T$ H
L$(L
D$0H
t$8L
|$@H9
T$ L
L$(L
D$0H
t$8L
|$@f
D$ I
t$(M
|$0I
X[]A\A]A^A_
X[]A\A]A^A_
T$ L
L$(L
D$0H
t$8L
D$ I
t$(M
|$0I
AWAVAUATUH
T$PD
+D$PD
T$XD
+D$0
D$xH
D$0H
D$PH
t$PD
|$0f
D$0H
D$4H
l$P1
\$4H
D$`D
\$hH
d$0E
*\$H
*D$X1
|$(H
*l$\D
\$<H
\$8H
L$$D
L$8D
L$$D
9T$0A
D$@H
L$$D
\$$H
H+D$@D
S|H)
S|L)
D$4D
L$$D
D$P9D$H
LcD$4H
\$LD
L$4Mc
L$LE
t$$E1
t$lE1
D$TE
;l$$u
[]A\A]A^A_
+D$P
S@Hc
|$pH
D$`H
|$0H
D$4A
D$ A
D$ H
D$0H
AWAVAUATUSH
T$pH
t$PH
L$`H
WPH9WXL
D$8L
;D$h
T$hD
L$hE
L$hH
;D$\
T$\D
L$\E
t$01
D$@H
I0HcD$\Hc
t$8H!
HcL$hH
L$PH
L$hH
t$HA
t$Hf
D$xH)
D$xIc
t$8J
t$H+V
t$PH
D$lH
D$x1
L$,1
t$XA9
\$ H
H;l$
T$pH
T$pH
L;l$@
[]A\A]A^A_
={G"
t$HH
=5D"
=TC"
AWAVAUATI
[]A\A]A^A_
[]A\A]A^A_
ATUH
[]A\
|$ 1
T$H1
D$ H
T$PH
D$(H
T$XH
D$0H
T$`H
D$8H
T$hH
D$@H
T$pH
D$Ht
D$ H
T$PH
D$(H
T$XH
D$0H
T$`H
D$8H
T$hH
D$@H
T$pH
D$Ht
D$ H
T$PH
D$(H
T$XH
D$0H
T$`H
D$8H
T$hH
D$@H
T$pH
D$Ht
[]A\
=h1"
=h0"
=b/"
=6/"
AWAVAUATUSH
|$pH
t$xH
T$`H
D$PL
t$H1
D$XH
I0Hc
t$PH!
L$xH
t$pA
t$`H
T$`H
l$hH
T$`H
L$HH
T$ H
t$(H
L$PH
t$xH
D$8f
l$0H
t$ E
t)Hc
L;d$8
T$hH
L$XH
H9L$(
[]A\A]A^A_
t$PH
D$(H
=.$"
t$pH
|$`H)
=r!"
=D!"
AWAVAUATUH
p`Hc
H`Hc
xUD9
xfD9
xnD9
x_D9
[]A\A]A^A_
d$pD
\$`L
T$PH
L$@H
D$0H
|$ H
L$@D
d$pD
\$`L
T$PH
L$@H
D$0H
|$ H
AWAVAUATUS
VUUUH
L$$~!I
t^Mc
tgMc
tgMc
tgMc
[]A\A]A^A_
T$(H
T$PH
t$0H
)L$@
d$`H
T$PH
(L$@H
T$(H
T$PH
)L$@
\$pH
T$PH
(L$@H
T$(H
T$PH
)L$@
T$PH
(L$@H
t$0H
T$(H
)L$@
(L$@H
t$0H
AWAVAUATU
VUUUSH
L$PH
L$PH
L$PA
L$`H
T$(Hc
D$pH
D$xLc
D$@H
D$8Lc
L$hH
L$PHc
D$`H
t$pL
D$xD
t$hH
H;D$@A
H;L$@A
H;t$@A
L;D$@A
t$h9
!L+D$PH
L$8I
D$XN
HcD$0L
D$XH
D$8H
l$lH
D$OD
|$OE!
D$OD
|$OE!
D$OD
|$OE!
t$lD
L$0A
L+D$PHc
L$81
L+D$PM
L+D$PM
D$XO
L+D$PM
l$0HcD$0H
\$$H
D$8L
D$`1
L$$L
L$$1
D$$J
L$(H
L$`H
L$pH
L$xH
D$@9
D$XL
[]A\A]A^A_
L$01
AWAVE
AUATA
L$0D
D$4D
L$8H
t$0L
|$<H
t$hL
d$`1
T$hL
t$hL
d$`H
T$hL
[]A\A]A^A_
AWAVAUATA
|$PD
L$4E
T$\D
d$XL
L$PA
D$XD
L$(H
H+D$8H
T$@H
D$HHc
l$ H
T$(E1
L$ H
<9Hc
D;\$
L$8H
D$@L
L$ H
D$(L
T$49T$0
L$PD
L$XL
T$\D
L$PH
[]A\A]A^A_
L$PM
AUATUS
HcD$
[]A\A]A^A_
N I9
AWAVA
C$A9
[]A\A]A^A_
ATE1
[]A\A]1
AVAUI
ATUSH
L$(L
L$ I
D$,f
t$ A
9l$,
t2Hc
t$ I
D+l$(
L$(Mc
[]A\A]A^A_
AWAVAUATI
T$ H
D$0H
t$(H
L$8D
T$ L
t$(L
T$0H
t(Hc
D9\$8
T$0H
t$(H
T$ H
D$<H
H[]A\A]A^A_
T$ H
t$(H
D$0H
AWAVAUATUH
T$ H
L$(H
L$ D
W A9
D$0H
L$(H
T$8D
T$ L
L$(L
T$0H
L$HD
t$HL
D$@H
D$<H
t'Hc
9l$8
T$0H
t$8H
T$ H
D$(L
D$<H
X[]A\A]A^A_
T$ H
L$(H
D$0H
AWAVAUATA
t$0A
T$XHc|$XHc
L$\H
t$XH
D$XD
|$XA
T$0A
|$0D
T$ H
L$@H
L$PMc
l$8F
T$(H
D$ 9D$0
T$(L
\$0I
<9Hc
D;\$ 
D$8H
T$@H
T$(L
L$49L$$
L$XL
D$PH
[]A\A]A^A_
D$PL
AWAVAUATUSH
\$pH
L$4A
9L$4
D$@A
D$4Hc
H+L$H
D$@L
|$PH
D$8Hc
L$09L$@
T$(L
L$8H
|$(D
D$@I
D$ H
D;D$0
|$HH
D$PL
|$(H
D$8H
L$XD
|$DH
D9|$4
D$ H
[]A\A]A^A_
AWAVAUATI
L$(D
D$4D
L$8L
HcD$0)
T$$D
l$PH
L$0H
d$@I
D$HE1
D$HD
l$$Mc
$tSH
D$0E
d$01
D$TH
x[]A\A]A^A_
D$(I
|$0H
~JE1
t$`J
D$(H
L$PH
T$H1
HcD$$L
l$`L)
T$8H
D$8E1
D$0D
D9d$$
|$(A
D;L$4
\$(E1
t$XI
d$PH
HcD$$H
L$HL
t$`L
D$4E1
HcD$ L
T$4H
A+L$ A
6A+t$
D9T$$
T$4H
D$(9T$P
D$0E1
l$0E
AWAVAUI
ATUSH
L$8D
D$DD
L$HL
HcD$@)
L$`H
T$4H
l$PI
D$XE1
$tTH
d$@1
D$dH
[]A\A]A^A_
T$8I
~PE1
t$pJ
D$`L
HcD$4L
|$PE1
T$XL
l$pE1
D$(H
D$HE1
D$@D
D9d$4
|$8A
D;L$D
\$(E1
L$8I
L$8H
l$`E
HcD$4H
L$XL
t$pL
L$8H
T$4E
D$DE1
HcD$0D
d$@I
T$DH
D$(I
A+L$ A
6A+t$
D9T$4
T$DH
D$89T$`
\$@E1
l$@E
AWAVAUATUSH
T$PH
t$XD)
D$dLc
L$pL
D$DH
L$DI
\$DE1
\$(L
D$hI
|$0H
D$0H
;L$D
GL$D1
9L$DtjD
D$DA)
T$0f
L$0Hc
L$Df.
T$PD
L$hD
L$dD
t$XH
D$\H
D$0H
D$8H
D$8H
|$hH
d$xH
\$0D
L$d)
|$HD
D$\I
d$8H
.D$(
d$xH
Hc8H
$Hc:H
T$DH
l$HH
L$8E
\D$(
L$0A
T$PF
L$hH
T$HLc
D9D$D
L$(L
l$HH
l$h1
[]A\A]A^A_
|$0H
T$PH
AWAVAUATUL
L$dH
t$\)
D$hHc
L$xH
|$8H
|$XH
d$pI
\$XL
l$HE1
|$8L
d$pL
l$HE1
d$pI
\$XL
l$8H
D$HI
|$xL
d$pL
l$8H
D$8H
L$XH
;D$X
9L$XtjD
D$XA)
T$8f
L$8Hc
L$Xf.
T$@H
l$xL
t$pD
l$PL
T$8D
L$h)
|$0D
L$lH
D$`H
l$xL
t$pL
Hc8H
Hc:H
Hc9H
Hc8H
t$XH
T$@H
L$8E
T$0~
D$0H
L$PH
T$HH
D$(1
H;D$(u
D9D$X~	
d$XL
l$P1
[]A\A]A^A_
|$xH
D$HH
AWAVAUATLc
L$(L
D$ L
} I9
o$Kf
tjHc
$McQ
D9t$
D99D
M9E)
D9t$
L$ L
l$81
t$ 1
L$0H
L$ Hc9H
L$ Hc9H
\$(L
t$01
uOHc
	IcL
[]A\A]A^A_
L$ 1
L$0H
L$ Hc9H
L$ Hc9H
B`D)
RpD)
Hc@(
Hc@h
AWAVAUATI
D;w<
|$ H
l$(I
t$,H
D$0H
D$@H
T$`I
T$hIc
T$pIc
D$PH
D$ H
oD$0H
oD$@
oD$P
|$hH
D$`I
[]A\A]A^A_
u,D;
xHIc
@$Hc
xXIc
xhIc
< Hc
.@<H
H0LcX,D
@8Ic
< Hc
X@LcX
@PLc
X`LcX M
.@<N
x0LcH,H
LcX4M
D;s<
D$(H
D$,H
T$hH
AVAUATUH
D;w4
t$PH
T$@H
T$PH
D$0H
oD$ 
oD$0
|$HH
D$@I
L+ H
@8Mc
pHHc
x@Hc
<^Hc
[]A\A]A^
p[]A\A]A^
l$`D
T$HH
D;s4
AUATUH
|$pH
H;t$pH
D$xH9D$
H9D$`
[]A\A]A^
HcH(
HcHh
AWAVAUATUH
[]A\A]A^A_
Lcp(
HcH(
r	H9
T$ F
T$$F
T$(D
T$,F
T$0F
T	 D
T$4F
T	$D
T$8F
T	(D
T$<D
T$@F
T	0D
T$DF
T	4D
T$HF
T	8D
T$LF
T	<H
L$PH
L$XH
L$`H
L$hH
L$pH
L$xH
\0 B
\0$F
\00B
\04B
\08F
D0<H
D  B
D6 C
D $B
D6$G
T (F
D 0B
D60C
D 4B
D64C
D 8B
D68G
D <F
D6<H
Lcph
HcHh
D$PH
D$XH
D$`H
D$hH
D$pH
D$xH
L! D
L!$D
L!(D
L!0D
L!4D
L!8D
L!<H
T$hH
t$`1
T$(1
H9G 
AWAVAUI
D$0H
C H+D$0H
t$0f
LcD$ 1
Hct$(
xPA+
xpA+
[]A\A]A^A_
s0L)
\$8H
l$0L
D$@~
D$8H
D$(f
L$0H
Hc+L
xPA+
xpA+
D$ D9D$@
D$hH
l$`H
T$XH
\$ H
T$(1
D$pH
|$ Ic
|$`H
O`A)
L$0H
L$8H
L$@H
L$HD
D+L$0E
O(E+4
D+L$8D
D+L$@D
L$8E9
L$HE)
L$@E9
L$(@
|$0D)
+|$HL
\$hA
l$XH
L$xD9
9L$8
[xL)
\$@L
T$HH
D$pHc
\$8H
D$xH
D$XH
D$xE1
d$0Mc
l$HHcE
T$8H
\$ L
ZhD)
l$(E
D$(L
d$PD	
D$`H
|$hD
D$`H
L$pD)
D$0L9L$X
d$ H
UUUUUUU
t$ H
t$ H
t$ H
t$ H
t$ H
AVAUATUSH
 []A\A]A^
l$ L
d$(L
l$0L
t$8L
|$@H
ATUSH
[]A\
[]A\
AVAUATI
A\A]A^
ATUSH
[]A\
[]A\
AVAUATI
A\A]A^
l$ L
d$(L
l$0L
t$8L
|$@H
UUUUUUU
l$ L
d$(L
l$0L
t$8L
|$@H
l$ L
d$(L
l$0L
t$8L
|$@H
l$ L
d$(L
l$0L
t$8L
|$@H
AVAUATUSH
H;=0P!
NT$$
T$$H
|$PH
T$PH;
C8H+C0H
H;s(
T$(H
D$@H
|$$H;s@
T$0H
SPH+SHH
|$0H
ChH+C`H
{xH+CxA
sPH;sX
sPH;sXu
|$0H
shH;sp
[]A\A]A^A_
Hc@(
HcR(
HcRh
Hc@h
HcH(
HcHh
|$HH
HcH(
HcHh
|$@H
H;=NB!
H9D$XH
|$8H
=H>!
AUATL
$H;D$`H
[]A\A]
HcHh
HcH(
L$hH9L$
H9L$P
AWAVAUATU
L+l$0H
tTI)
t$`H
t$8H
t$hH
H+D$8H
t$@H
t'Hc
\$ E1
T$0H
l$HD
l$,D
l$HD+l$,E
\$HA
D+\$,E)
D9t$
D$@H+D$8
l$LH
HcT$
l$8I
D$hD
tTI)
D$`H
D$hL)
L$PH
T$XH
D9|$,
D9|$ 
;|$@
D9D$L
M|$H9
|$,A9
D;d$
D$8H
t$ D
t$81
L$@D
L$ D
|$,D
L$Lf
|$,H
D$PH
L$0D
D$PH
T$XH
T$XD;d$
|$`H
[]A\A]A^A_
L$ A
D;|$ 
9t$,
D9D$@
L$XH
T$XH
L$X1
t$@H
|$`H)
|$`H
AWAVAUATUSH
t$ H
[]A\A]A^A_
l$pH
l$xH
|$pL
t$xL
t$0H
t$8H
t$@H
t$HH
t$PH
t$XH
t$(H
D$8L
D$@H
D$HL
D$PL
D$XL
D$(L
H9t$
d$xL
|$pL
t$xH
t$0H
t$8H
t$@H
t$HH
t$PH
t$XH
t$(H
D$8L
D$@H
D$HL
D$PL
D$XL
D$(L
H94$
D$ f
D$0f
D$@f
D$Pf
D$`f
D$pf
Lc@(
HcH(
HcHh
Lc@h
AUATUSH
([]A\A]
([]A\A]
([]A\A]
AVAUATUH
8[]A\A]A^A_
8[]A\A]A^A_
L$(L
\$ H
\$ L
L$(D
L$(L
\$ L
L$(D
\$ L
AWAVE
ATUSH
L$DL
L$0v	
L$0H
D$8D
Ic](
t$(f
t$(H
[]A\A]A^A_
T$(H
L$pH
L$xH
D$\H
D$`H
L$XH
D$hH
|$P1
D$hH
D$\H
D$`H
D$pf
*L$X
*T$\
L$0E9
D$HH
|$PA
L$$f
nL$$D
|$ f
nD$ f
T$ f
nD$ 
D$ f
n\$ f
9l$@
*L$X
*T$\
Y\$8
D$(H
t$(H
t$DH
D$hH
|$(H
L$(H
|$(H
T$(H)
|$PH
</Model>H
<Model>
$</P>dH
</ScoreTH
reshold>H
<ScoreThI
hresholdH
|$ H
t$(H
D$81
T$8dH3
<ComponeI
</ComponH
D$(1
ent>
T$(dH3
<RootFilH
ter>dH
D$(1
</RootFi
lterH
T$(dH3
D$(1
<PartFil
tersH
</PartFif
lterf
T$(dH3
D$(1
<PartFil
ter>H
</PartFi
lterf
T$(dH3
</sizeX>H
<sizeX>
</sizeY>H
<sizeY>
<WeightsI
</WeightH
D$(1
T$(dH3
$</V>dH
<Vx>
$</Vxf
<Vy>
$</Vyf
<PenaltyI
</PenaltH
D$(1
T$(dH3
<dx>
$</dxf
<dy>
$</dyf
<dxxf
$</dxf
<dyyf
$</dyf
<LinearTH
erm>dH
D$(1
</Linear
TermH
T$(dH3
l$ H
AVE1
ATE1
t$(f
t~<>
uQIc
[]A\A]A^A_
LcD$
HcD$
D$(L
D9\$
t.Ic
|$0Mc
|$0Mc
D$ f
|$0Mc
AWE1
AVE1
AUE1
tv<>
uLIc
[]A\A]A^A_
t)=F
tj=_
t,E1
AWE1
AVE1
AUE1
tv<>
uLIc
[]A\A]A^A_
u`E1
AVE1
ATE1
t~<>
uQIc
[]A\A]A^A_
tK=~
|$0Mc
D$$A
|$0Mc
D$ A
LcD$$HcD$ L
D$(L
t$ H
t$$Ic
D9\$
t.Ic
AVE1
AUE1
<<tH<>tTIc
[]A\A]A^A_
AVAUM
ATE1
<<tH<>tTIc
[]A\A]A^A_
AVE1
ATE1
L$@H
t$0dH
L$(H
D$8H
t~<>
uQHcT$$H
[]A\A]A^A_
|$PH
~:LcD$$H
T$(L
L$(H
T$(I
t$8H
T$PI
L$@Hc
T$PM
HcD$PH
HcD$$H
|$`1
D$Hf
HcD$$H
t$0f1
D$PH
ATUSH
Hc9H
D$ H
T$(dH
<<tX<>tl
[]A\A]A^A_
D$0<A
|$01
T$(H
D$ L
AUATM
D$,L
L$$H
T$ H
D$(H
[]A\A]
D$ Hc|$(
D$(I
t.Mc
[]A\A]
AWAVAUATUSH
t$,H
L$(H
|$,H
D$ A
D$ Lc
;D$,
L$@D
L$(N
D$ M
L$@D
[]A\A]A^A_
D$ L
T$,L
\$01
[]A\A]A^A_
~,Hc
AWAVA
ATUSH
[]A\A]A^A_
AWAVA
ATUSH
[]A\A]A^A_
AVAUA
D$ L
[]A\A]A^A_
~uIc
D$pL)
D$ L)
|$ D
|$pD
L$pL
D$(Lc
[]A\A]A^A_
D$<H
T$4L
L$(L
D$ H
L$8H
T$(H
T$ H
AUATI
D$,H
D$ M
L$PA
|$`H
D$HH
|$XH
D$xH
L$`H
T$XH
L$hH
D$,H
~oE1
D$@K
D$pH
L$4)
t$0)
[]A\A]
AVAUA
[]A\A]A^A_
AVAUA
[]A\A]A^A_
AWAVA
AUATA
[]A\A]A^A_
AUATM
L$PH
D$8E1
D$(L
L$ A
+D$@
+D$P
D$(L
L$ D
t$PO
L$0L
nd$0
t$0f
nL$0f
tOHc
[]A\A]A^A_
ATE1
 []A\
[]A\
D$xL
|$hA
L$pH
D$`E
D$xH
D$`L
\$(H
l$0L
d$8L
l$@L
t$HL
|$PH
D$xL
|$hA
L$pH
D$`E
D$xH
D$`L
\$(H
l$0L
d$8L
l$@L
t$HL
|$PH
l$ H
[]A\A]A^A_
ATUH
L$,H
T$0H
[]A\A]A^A_
T$(D
L$(1
T$0H
H;\$ 
9l$,
[]A\A]A^A_
D$pH
D$xH
H;\$(u
[]A\A]A^A_
v A90A
AWAVI
AUATUSHc
|$XH
T$hL
D$lL
t$hL
|$hH
d$8H
D$@L
|$HI
T$pH
T$0L)
D$xL)
T$PHc
|$XM
L$lL
D$`A
D$pL
T$(L
D$xL
T$(H
9l$h
Hc8H
Hc8H
l$@I
T$8Lc
\$PJ
T$0L
\$PI
D9\$h~
|$8E1
D$0J
D$@J
D$HJ
D9l$h
[]A\A]A^A_
Hc8H
Hc8H
@opencv-haar-classifier
size
stages
trees
tree %d
node %d
feature
rects
left_node
left_val
right_node
right_val
stage_threshold
parent
next
tilted
vector::_M_fill_insert
Invalid classifier pointer
%s:%d: error: (%d) %s
Invalid stages node
Invalid stage %d
Scale must be positive
COI is not supported
Invalid cascade pointer
Invalid classifier cascade
Null storage pointer
scale factor must be > 1
Null path is passed
Invalid path
%d%d%d%d%d%f%n
%s%n
%f%d%d%n
/builddir/build/BUILD/OpenCV-2.2.0/modules/objdetect/src/haar.cpp
%s:%d: error: (%d) %s in function %s
hid_cascade has been already created
Negative number of cascade stages
header of the stage classifier #%d is invalid (has null pointers or non-positive classfier count)
rectangle #%d of the classifier #%d of the stage classifier #%d is not inside the reference (original) cascade window
Number of stages should be positive
size node is not a valid sequence.
Invalid size node: width must be positive integer
Invalid size node: height must be positive integer
Trees node is not a valid sequence. (stage %d)
Tree node is not a valid sequence. (stage %d, tree %d)
Tree node %d is not a valid map. (stage %d, tree %d)
Feature node is not a valid map. (stage %d, tree %d, node %d)
Rects node is not a valid sequence. (stage %d, tree %d, node %d)
Rect %d is not a valid sequence. (stage %d, tree %d, node %d)
x coordinate must be non-negative integer. (stage %d, tree %d, node %d, rect %d)
y coordinate must be non-negative integer. (stage %d, tree %d, node %d, rect %d)
width must be positive integer and (x + width) must not exceed window width. (stage %d, tree %d, node %d, rect %d)
height must be positive integer and (y + height) must not exceed window height. (stage %d, tree %d, node %d, rect %d)
weight must be real number. (stage %d, tree %d, node %d, rect %d)
tilted must be 0 or 1. (stage %d, tree %d, node %d)
threshold must be real number. (stage %d, tree %d, node %d)
left node must be valid node number. (stage %d, tree %d, node %d)
left node or left value must be specified. (stage %d, tree %d, node %d)
left value must be real number. (stage %d, tree %d, node %d)
Tree structure is broken: too many values. (stage %d, tree %d, node %d)
right node must be valid node number. (stage %d, tree %d, node %d)
right node or right value must be specified. (stage %d, tree %d, node %d)
right value must be real number. (stage %d, tree %d, node %d)
Tree structure is broken: too few values. (stage %d, tree %d)
stage threshold must be real number. (stage %d)
parent must be integer number. (stage %d)
next must be integer number. (stage %d)
All integral images must have the same size
Only (32s, 64f, 32s) combination of (sum,sqsum,tilted_sum) formats is allowed
Sum and tilted_sum must have the same stride (step, widthStep)
Hidden cascade has not been created.
Use cvSetImagesForHaarClassifierCascade
Only 8-bit images are supported
%s%s%d/AdaBoostCARTHaarClassifier.txt
%s/%d/AdaBoostCARTHaarClassifier.txt
cvSetImagesForHaarClassifierCascade
icvCreateHidHaarClassifierCascade
cvRunHaarClassifierCascade
cvHaarDetectObjects
cvLoadHaarClassifierCascade
icvCreateHaarClassifierCascade
icvReadHaarClassifier
N2cv9ExceptionE
@333333
I@333333
?ffffff
?img.type() == CV_8U || img.type() == CV_8UC3
/builddir/build/BUILD/OpenCV-2.2.0/modules/objdetect/src/hog.cpp
blockSize.width % cellSize.width == 0 && blockSize.height % cellSize.height == 0
(winSize.width - blockSize.width) % blockStride.width == 0 && (winSize.height - blockSize.height) % blockStride.height == 0
/builddir/build/BUILD/OpenCV-2.2.0/modules/objdetect/../core/include/opencv2/core/operations.hpp
No element name has been given
(unsigned)pt.x <= (unsigned)(grad.cols - blockSize.width) && (unsigned)pt.y <= (unsigned)(grad.rows - blockSize.height)
pt.x % cacheStride.width == 0 && pt.y % cacheStride.height == 0
pt0.x % cacheStride.width == 0 && pt0.y % cacheStride.height == 0
{opencv-object-detector-hog
winSize
blockSize
blockStride
cellSize
nbins
derivAperture
winSigma
histogramNormType
L2HysThreshold
gammaCorrection
SVMDetector
blockHist != 0
checkDetectorSize()
N2cv13HOGDescriptorE
N2cv8HOGCacheE
getDescriptorSize
setSVMDetector
read
operator<<
operator<<
operator<<
operator<<
computeGradient
getBlock
compute
detect
a<;>
:=AGi
~=(Y
^h,<
X;=`
[=G%
V=V|
%p=w
72c=p
>=&XV
<h6w=
{f*<
T9<h
>o(_
hik=S
ub<9@
jaf:
<L`%=
;l_,
/o	=
H.D=)
=W)9=
=8kp<b
c3=%|
;;BK=l
:l3B
S<u}"<
!="R
	I$;H
T=>nx=
N)=g
<{n?=
n\3<
<{lH
y=(x
5Z=u
Os8<
?=X%
|p9B
<Y/X=
72>z_{
<(($<H
<B|?<
Dx=j
<q7y
H=;@(<
9ikY
f?;<	
{=	\5>
Y<d/
o=|w?
^>eB
Sb=Y
~-=$J
Z:;W
>vig=}
9>I4a;
1>+A
>=ai=.
W">WU
<SW?
<zeh=
&<o>
P'7>1
ya<9	
S]>v
(=&l
>Y2'
hPL=Z-^=|
"{j;Vv
RP&>6
F>@|
>P	=
<I._=
]jC>*D4>
;8rT=c
yZ=h	
;X~N=:
\/;O
~G>R
?>M?
.E>j$
	}p>.f
9>u.M>
R>q8
NE>1
cB>?%!>V,><
t=Vv
>[#b=
+y<<O
 =}i
'="\
_t=4
F<61
erI<
=EUP
8=*/
y4`=
=8q+>
=vWD=
Lj=q@$
<S6a=M
<L+0
;^>$f
t?=&
M<	\
.>N#
g=RH1
;(N> 
q==l
be=i
=Bdx=
>%zN>{"
=Xwo>
G<BsC;}&V
<Lb*=
7,;]&E=
=DN_
d>'qx>
w@/;
h;>p
]Ky;r3~=2
qe=J
<':2
h<>uo=
>q_1=P"N=
 >B@@
1j=p5
#aF=To	
C=mc!="
cN=4
==I\1=
!r=P
qT=V
+I='
N'>m=
>|E:=Y
=/tC>
Y>Fz
->8(
|a=#p
;%>?z+
u<U%
=!TL
m=9)K=
)==N
.^=\ 
/>9z
f4]=
%=1MG
5T=s"
"n<SW
K$=B
=IAq=
:kR=
)<YT
=Q^0
Pk=z
NAA='
;buy
`p=l9
H=0U/
<	,'=
"Q(<
q=|EG=
=Hdi
e=:.E=
gn#>
XS=?a
<!}l
=g1L
>Ww<=
8(=sN
gX<q
N=L0
,%>$,8>
=rQk=Gp
=rM@>
e="mG
]w<gcF
*,<Q
YI=C
:=*Rr
@=/r\
P=j!
=fI5
iI;A
_=4!
;G^P
2<}B
[O<t
<-g)
+=.`
+F<q
<C#0
<=siK=}
=*Vn=
?L=,
z<)-R<
S=P	
<hqJ=
+<'IW;
ml+=
 1<7
=MKT;
m/=@
b=UA
nn<<
Z<V^
mX=MK
>rect
oldCascade.empty()
vector::reserve
stageType
BOOST
featureType
HAAR
width
height
stageParams
maxDepth
featureParams
maxCatCount
weakClassifiers
leafValues
features
internalNodes
stageThreshold
/builddir/build/BUILD/OpenCV-2.2.0/modules/objdetect/src/cascadedetect.cpp
origWinSize.height > 0 && origWinSize.width > 0
scaleFactor > 1 && image.depth() == CV_8U
!_seq || _seq->elem_size == sizeof(_Tp)
N2cv16FeatureEvaluatorE
N2cv13HaarEvaluatorE
N2cv12LBPEvaluatorE
runAt
detectMultiScale
read
Initial image
zPLR
libopencv_objdetect.so.2.2.0.debug
.data
.rodata
.shstrtab
.dynamic
.note.gnu.build-id
.gcc_except_table
.eh_frame
.gnu.hash
.fini
.gnu_debuglink
.dynsym
.gnu.version
.rela.dyn
.data.rel.ro
.gnu.version_r
.jcr
.eh_frame_hdr
.dynstr
.ctors
.dtors
.bss
.init
.rela.plt
.got.plt
.got
.text
.init_array
